svm_type one_class
kernel_type rbf
gamma 1.0E-5
nr_class 2
total_sv 213
rho 20.7136555682716
SV
1.0 0:964.0 1:1289.0 2:60.0 3:3072.0 4:124.19412309092081 5:4.776453931995297 
1.0 0:738.0 1:969.0 2:94.0 3:3337.0 4:129.11865548345435 5:2.3502404921963698 
1.0 0:574.0 1:1875.0 2:64.0 3:149.0 4:29.42878856898628 5:1.0522667538624622 
1.0 0:412.0 1:1120.0 2:85.0 3:39.0 4:19.506881174845276 5:1.318508151954665 
1.0 0:183.0 1:1085.0 2:97.0 3:97.0 4:23.636804369263846 5:1.8960784843627148 
1.0 0:917.0 1:557.0 2:61.0 3:40.0 4:19.35801943437843 5:0.9674824881989657 
1.0 0:885.0 1:1166.0 2:67.0 3:34.0 4:20.467901733148107 5:0.5910208854137159 
1.0 0:899.0 1:1339.0 2:65.0 3:45.0 4:20.90428731154771 5:0.5646814095303205 
1.0 0:830.0 1:1409.0 2:70.0 3:3079.0 4:125.64676156204224 5:22.693392640182473 
1.0 0:865.0 1:1123.0 2:69.0 3:963.0 4:70.60077285104714 5:2.2875998827109223 
1.0 0:884.0 1:1297.0 2:75.0 3:1034.0 4:71.78000232100382 5:0.5245123908299401 
1.0 0:856.0 1:1358.0 2:72.0 3:1266.0 4:79.5120943154322 5:0.5283175723343425 
1.0 0:937.0 1:1393.0 2:69.0 3:5610.0 4:167.60706749173528 5:0.6269632327378619 
1.0 0:988.0 1:956.0 2:65.0 3:340.0 4:42.95528292030838 5:0.515551448711555 
1.0 0:322.0 1:1918.0 2:52.0 3:126.0 4:27.724736355433574 5:0.8951375092188633 
1.0 0:786.0 1:554.0 2:96.0 3:32.0 4:16.98059398609276 5:1.078253131312956 
1.0 0:824.0 1:1255.0 2:80.0 3:951.0 4:70.54533397482363 5:7.93941710595634 
1.0 0:998.0 1:729.0 2:67.0 3:186.0 4:31.293231467380384 5:0.6538506988135333 
1.0 0:922.0 1:970.0 2:77.0 3:422.0 4:47.03980076428958 5:0.9398967287584027 
1.0 0:679.0 1:985.0 2:81.0 3:95.0 4:24.77816585441547 5:1.1080529758550102 
1.0 0:573.0 1:1193.0 2:69.0 3:74.0 4:22.093517062182855 5:0.6190521771068379 
1.0 0:576.0 1:1202.0 2:70.0 3:84.0 4:24.418227951736856 5:0.9373332599495653 
1.0 0:326.0 1:1919.0 2:50.0 3:98.0 4:25.725809049803527 5:0.5220178534600018 
1.0 0:1037.0 1:922.0 2:55.0 3:247.0 4:36.63922734267368 5:0.46893765358579326 
1.0 0:929.0 1:1037.0 2:76.0 3:659.0 4:58.07903422813194 5:0.7945823673368834 
1.0 0:764.0 1:805.0 2:87.0 3:27.0 4:16.801679863473655 5:0.6356909289723285 
1.0 0:902.0 1:1510.0 2:70.0 3:753.0 4:62.27478590944702 5:0.7105389645979644 
1.0 0:959.0 1:1306.0 2:62.0 3:871.0 4:66.80213199616722 5:0.6849137084492226 
0.45830595221492937 0:940.0 1:1273.0 2:67.0 3:833.0 4:65.27286365458801 5:0.6534111202568814 
1.0 0:878.0 1:1382.0 2:67.0 3:1451.0 4:85.87421390845897 5:0.44207402351292896 
1.0 0:928.0 1:1411.0 2:66.0 3:1233.0 4:79.27066445320942 5:0.5343671008625097 
1.0 0:904.0 1:1337.0 2:68.0 3:2252.0 4:105.46753861763379 5:1.3591722840827651 
1.0 0:330.0 1:1899.0 2:67.0 3:40.0 4:16.83419057747612 5:0.5721873933962168 
1.0 0:803.0 1:749.0 2:83.0 3:23.0 4:17.007122795273023 5:0.7868248021072674 
1.0 0:819.0 1:1518.0 2:60.0 3:617.0 4:57.37302987547348 5:0.3796221551264766 
1.0 0:837.0 1:1523.0 2:60.0 3:726.0 4:60.58783371945136 5:0.3659771133351718 
1.0 0:512.0 1:1335.0 2:81.0 3:36.0 4:20.778048926017355 5:0.14323455013528233 
1.0 0:291.0 1:1874.0 2:67.0 3:74.0 4:21.33030496791524 5:1.9504700601977651 
1.0 0:276.0 1:1870.0 2:68.0 3:34.0 4:19.529325642085894 5:0.8524746507080289 
1.0 0:818.0 1:1461.0 2:61.0 3:1569.0 4:89.20825937932385 5:2.2386766941525176 
1.0 0:808.0 1:1602.0 2:61.0 3:445.0 4:48.13729627042799 5:0.5431358102275079 
1.0 0:770.0 1:1025.0 2:72.0 3:29.0 4:16.61170204859448 5:0.4880687253908485 
1.0 0:677.0 1:1304.0 2:70.0 3:314.0 4:40.56910322896654 5:1.8641205233289548 
1.0 0:917.0 1:1496.0 2:55.0 3:956.0 4:69.50777310504928 5:0.5016360545414409 
1.0 0:898.0 1:1498.0 2:57.0 3:1493.0 4:86.86559506749255 5:0.6471666811148471 
1.0 0:890.0 1:1535.0 2:55.0 3:848.0 4:65.13903332843178 5:0.32689681971794665 
1.0 0:866.0 1:1524.0 2:60.0 3:1170.0 4:76.87599443893254 5:0.4789152348158774 
1.0 0:864.0 1:1559.0 2:54.0 3:501.0 4:51.107233286698005 5:0.4253464823048434 
1.0 0:844.0 1:1472.0 2:57.0 3:1553.0 4:88.51691780007317 5:0.31325893980924374 
1.0 0:849.0 1:1500.0 2:54.0 3:1058.0 4:72.93191851237486 5:0.21687350898115823 
1.0 0:835.0 1:1421.0 2:60.0 3:2689.0 4:116.02115324999171 5:0.46808543449302664 
1.0 0:891.0 1:1164.0 2:64.0 3:717.0 4:61.52060345501694 5:1.1193005072026458 
1.0 0:284.0 1:1912.0 2:60.0 3:113.0 4:27.641363664288278 5:0.734000787525131 
1.0 0:832.0 1:1576.0 2:58.0 3:412.0 4:47.1069553265944 5:0.7209493533308112 
1.0 0:820.0 1:1547.0 2:51.0 3:505.0 4:52.04803280343858 5:0.8281638663476407 
1.0 0:818.0 1:659.0 2:88.0 3:32.0 4:20.490318233661693 5:1.0542811994478714 
1.0 0:768.0 1:671.0 2:79.0 3:13.0 4:17.882673061123583 5:0.6664705043897604 
1.0 0:711.0 1:854.0 2:70.0 3:317.0 4:41.912096012230926 5:2.449806048825305 
1.0 0:828.0 1:898.0 2:59.0 3:288.0 4:39.38710370638769 5:0.6755617281850678 
1.0 0:315.0 1:1899.0 2:51.0 3:97.0 4:25.88759150336601 5:0.7526543986747158 
1.0 0:728.0 1:1050.0 2:78.0 3:5.0 4:14.377217607964765 5:0.2851425760226472 
1.0 0:415.0 1:1345.0 2:88.0 3:415.0 4:46.01458039238042 5:0.5727935834862536 
0.953083670332911 0:962.0 1:1450.0 2:63.0 3:718.0 4:60.647073478594955 5:0.4654937469728231 
1.0 0:947.0 1:1470.0 2:64.0 3:872.0 4:67.4879998730289 5:0.36957094888480796 
1.0 0:928.0 1:1508.0 2:65.0 3:1709.0 4:92.37567212287405 5:0.9902364928036805 
0.036937585547924166 0:898.0 1:1502.0 2:67.0 3:818.0 4:63.93350704358745 5:0.3086894959204011 
1.0 0:897.0 1:1533.0 2:66.0 3:807.0 4:64.62920059758399 5:0.28556104361000134 
1.0 0:917.0 1:1576.0 2:62.0 3:413.0 4:45.18662323294517 5:0.22431650555618743 
1.0 0:951.0 1:1524.0 2:62.0 3:462.0 4:50.345005133565635 5:0.29291482240390976 
1.0 0:948.0 1:1500.0 2:64.0 3:936.0 4:69.03508622535566 5:0.5649694514839306 
1.0 0:919.0 1:1477.0 2:59.0 3:1747.0 4:93.40506607978996 5:0.6264118605817665 
0.8658044624386121 0:971.0 1:1465.0 2:57.0 3:435.0 4:48.32504099644357 5:0.4000453816863702 
1.0 0:901.0 1:1475.0 2:61.0 3:1148.0 4:76.88688150882207 5:0.2253355956229958 
1.0 0:918.0 1:1477.0 2:61.0 3:1269.0 4:79.94357116863974 5:0.23018841858356756 
1.0 0:967.0 1:1482.0 2:58.0 3:523.0 4:52.032090500437924 5:0.1551357196406498 
1.0 0:940.0 1:1442.0 2:54.0 3:2208.0 4:105.11336924795823 5:0.24149195839049972 
1.0 0:892.0 1:1369.0 2:64.0 3:1535.0 4:88.07096097673745 5:0.31712791393050266 
1.0 0:917.0 1:1451.0 2:64.0 3:1608.0 4:90.22736364196479 5:0.622172777925106 
1.0 0:899.0 1:1467.0 2:61.0 3:1316.0 4:81.22018137076829 5:0.27080283963386087 
1.0 0:882.0 1:1475.0 2:56.0 3:1682.0 4:91.80868703831345 5:0.24426972725281965 
1.0 0:880.0 1:1448.0 2:47.0 3:2761.0 4:117.3207389156604 5:0.2692162905484818 
1.0 0:889.0 1:1426.0 2:58.0 3:2269.0 4:106.9213445785574 5:0.36041670509855084 
1.0 0:892.0 1:1431.0 2:62.0 3:3742.0 4:136.75888463281657 5:0.7989855867327667 
1.0 0:893.0 1:1466.0 2:56.0 3:1615.0 4:90.2111227102228 5:0.28410422394857265 
1.0 0:915.0 1:1368.0 2:60.0 3:2309.0 4:107.28684805750711 5:2.70902420293152 
1.0 0:294.0 1:1878.0 2:72.0 3:4.0 4:10.212526999809375 5:0.11599364283972163 
0.6877142187838271 0:985.0 1:1075.0 2:56.0 3:307.0 4:40.2750019412544 5:0.6914638431144117 
1.0 0:701.0 1:1037.0 2:88.0 3:61.0 4:22.75834808384368 5:0.7341532907659387 
0.5058006164589953 0:851.0 1:896.0 2:65.0 3:62.0 4:19.894729934355208 5:0.5289754439182696 
0.6711887143410703 0:683.0 1:1232.0 2:72.0 3:25.0 4:17.80274026825054 5:0.5514485985297238 
1.0 0:893.0 1:1293.0 2:45.0 3:25.0 4:16.7095925703912 5:0.4577839034660554 
1.0 0:268.0 1:1872.0 2:76.0 3:80.0 4:23.671841770581146 5:2.44332904206749 
1.0 0:812.0 1:947.0 2:69.0 3:523.0 4:53.05762175023238 5:0.9334116921871944 
0.8305490506649321 0:936.0 1:995.0 2:59.0 3:381.0 4:44.04605961660494 5:1.022535864583099 
1.0 0:987.0 1:875.0 2:56.0 3:198.0 4:34.259262904999005 5:0.7166238273258555 
1.0 0:802.0 1:1477.0 2:60.0 3:955.0 4:69.57518263455428 5:0.6683725630222126 
0.12150728567019127 0:800.0 1:1734.0 2:45.0 3:101.0 4:24.366802704405327 5:0.4742266201795035 
1.0 0:774.0 1:1740.0 2:56.0 3:46.0 4:19.656486485611186 5:0.149760439650316 
1.0 0:999.0 1:1762.0 2:39.0 3:154.0 4:29.595976573476957 5:0.25474765216652473 
1.0 0:967.0 1:1740.0 2:47.0 3:128.0 4:28.0207944599421 5:0.1265420280324273 
1.0 0:961.0 1:1727.0 2:47.0 3:108.0 4:26.14195700317126 5:0.20019611612577395 
1.0 0:968.0 1:1737.0 2:31.0 3:174.0 4:31.167929695751308 5:0.18930121503887587 
1.0 0:973.0 1:1761.0 2:36.0 3:83.0 4:22.032178607766333 5:0.06893851880206023 
1.0 0:756.0 1:1734.0 2:58.0 3:98.0 4:26.20506787779407 5:0.2845950296413731 
1.0 0:941.0 1:1752.0 2:50.0 3:92.0 4:24.281107447099966 5:0.21872387805260146 
1.0 0:966.0 1:1737.0 2:46.0 3:157.0 4:29.51609626360274 5:0.29575216321065795 
1.0 0:988.0 1:1259.0 2:51.0 3:156.0 4:29.860812048846036 5:0.8625174985764728 
1.0 0:985.0 1:1163.0 2:53.0 3:108.0 4:28.183849287779836 5:0.7025269119449776 
0.41477021264698066 0:549.0 1:1735.0 2:62.0 3:32.0 4:17.24017800566158 5:0.1437131092056433 
1.0 0:525.0 1:1747.0 2:55.0 3:14.0 4:17.084040931696816 5:0.12426867130260871 
0.7051201020219935 0:291.0 1:1737.0 2:90.0 3:96.0 4:23.183228380393622 5:2.9403121441014823 
1.0 0:554.0 1:1727.0 2:61.0 3:6.0 4:13.583693866113325 5:0.08007695653273944 
1.0 0:500.0 1:1736.0 2:61.0 3:323.0 4:41.545241154654704 5:0.47906169976520824 
1.0 0:1016.0 1:1290.0 2:50.0 3:241.0 4:36.64874589924494 5:0.80500822407193 
1.0 0:987.0 1:1399.0 2:56.0 3:490.0 4:51.34125179821489 5:0.6802855992366613 
1.0 0:990.0 1:1400.0 2:47.0 3:131.0 4:27.81624534496455 5:0.7209597252185433 
1.0 0:995.0 1:1354.0 2:53.0 3:400.0 4:46.262046850886186 5:0.48888915925266563 
1.0 0:951.0 1:1378.0 2:63.0 3:1474.0 4:86.46226362575922 5:3.846563530253063 
1.0 0:929.0 1:1407.0 2:63.0 3:4069.0 4:142.91980806253545 5:0.7520870077660603 
1.0 0:962.0 1:1440.0 2:65.0 3:2336.0 4:108.54078566772841 5:0.5825400095029675 
1.0 0:903.0 1:1134.0 2:70.0 3:721.0 4:61.64316815317139 5:0.6309347920286241 
1.0 0:869.0 1:1238.0 2:86.0 3:1132.0 4:76.44991303537914 5:0.443338370850571 
0.3413274332695858 0:851.0 1:1523.0 2:67.0 3:608.0 4:55.77751205953322 5:0.4447585623110851 
1.0 0:861.0 1:1475.0 2:74.0 3:2847.0 4:120.01083955401899 5:0.5568009066209809 
1.0 0:876.0 1:1524.0 2:70.0 3:1446.0 4:85.44083102769712 5:0.3837789786005123 
1.0 0:909.0 1:1215.0 2:78.0 3:1533.0 4:88.16512353767703 5:0.3230316407011585 
1.0 0:915.0 1:1209.0 2:64.0 3:1134.0 4:75.11135218379133 5:0.3292807324373887 
1.0 0:916.0 1:1405.0 2:74.0 3:1438.0 4:85.47993204680087 5:1.0058559978192465 
1.0 0:931.0 1:1515.0 2:60.0 3:986.0 4:70.39827100181064 5:0.38094489248047125 
1.0 0:926.0 1:1407.0 2:68.0 3:1567.0 4:88.73510087386822 5:0.3804724536966943 
1.0 0:921.0 1:1466.0 2:63.0 3:1677.0 4:92.03526104683004 5:0.4965218560586396 
1.0 0:938.0 1:1137.0 2:66.0 3:682.0 4:59.13504713825293 5:0.6378135258122449 
1.0 0:998.0 1:933.0 2:61.0 3:134.0 4:29.886731306074598 5:0.689357038886499 
1.0 0:824.0 1:918.0 2:68.0 3:16.0 4:14.115777914344829 5:0.3316160042533259 
1.0 0:876.0 1:1321.0 2:76.0 3:1066.0 4:73.89172540007308 5:0.6601845385319263 
1.0 0:975.0 1:731.0 2:76.0 3:17.0 4:13.954899348909324 5:0.822854298248583 
1.0 0:318.0 1:1919.0 2:50.0 3:79.0 4:21.902259722018588 5:0.3893296759031037 
1.0 0:926.0 1:504.0 2:66.0 3:15.0 4:14.324057167850382 5:0.5842299315896781 
1.0 0:939.0 1:902.0 2:62.0 3:76.0 4:24.054761778196255 5:0.4176031355869511 
0.3447176007452225 0:740.0 1:1323.0 2:53.0 3:499.0 4:50.98283807648998 5:0.6752766479942423 
1.0 0:760.0 1:1055.0 2:70.0 3:420.0 4:46.811601118748946 5:1.0752262516390168 
1.0 0:716.0 1:1234.0 2:75.0 3:585.0 4:54.84528351553533 5:0.7332581722122017 
0.19174526325587032 0:302.0 1:1880.0 2:70.0 3:60.0 4:22.166437445152212 5:0.9002711499868393 
1.0 0:729.0 1:1718.0 2:64.0 3:67.0 4:21.989470637260233 5:0.2232894257118048 
1.0 0:979.0 1:1744.0 2:45.0 3:58.0 4:19.512543946384838 5:0.4016335680320722 
1.0 0:164.0 1:1768.0 2:75.0 3:67.0 4:22.37368160685924 5:2.2066164580338223 
1.0 0:160.0 1:1753.0 2:86.0 3:51.0 4:19.9221035556131 5:0.4023631624187347 
1.0 0:885.0 1:1235.0 2:45.0 3:6.0 4:10.077249534310685 5:0.10306800784428224 
1.0 0:318.0 1:1910.0 2:59.0 3:101.0 4:26.44889651597665 5:1.4383799977682015 
1.0 0:375.0 1:1901.0 2:45.0 3:130.0 4:27.710220426341685 5:1.2754807756679856 
1.0 0:951.0 1:1072.0 2:50.0 3:484.0 4:50.392546469400465 5:0.3996795614519071 
1.0 0:679.0 1:135.0 2:87.0 3:13.0 4:14.27814217056646 5:0.6498056003360474 
0.2784770163600935 0:867.0 1:1542.0 2:57.0 3:34.0 4:17.12565196781958 5:0.14632741184861855 
1.0 0:88.0 1:1386.0 2:66.0 3:11.0 4:13.142055491183209 5:0.47133944712076586 
1.0 0:425.0 1:1526.0 2:52.0 3:32.0 4:17.342206340176762 5:0.4337470184659798 
0.918741645896264 0:672.0 1:1540.0 2:59.0 3:42.0 4:19.214003381061687 5:0.46903950299959096 
1.0 0:922.0 1:1265.0 2:52.0 3:50.0 4:19.994118035736342 5:0.19380897231953628 
1.0 0:1001.0 1:1665.0 2:53.0 3:91.0 4:24.15673907947719 5:0.3844628888665434 
1.0 0:1042.0 1:1263.0 2:45.0 3:45.0 4:19.951120226020322 5:0.3936153301228623 
1.0 0:412.0 1:1247.0 2:72.0 3:38.0 4:20.359428588894982 5:0.47404718508964355 
1.0 0:882.0 1:1247.0 2:65.0 3:11.0 4:14.15256038298346 5:0.2794025719094068 
1.0 0:1013.0 1:1679.0 2:52.0 3:64.0 4:22.057903818466286 5:0.17794536836412225 
1.0 0:974.0 1:1677.0 2:55.0 3:5.0 4:16.720131042773662 5:0.4146114804100512 
1.0 0:924.0 1:474.0 2:82.0 3:29.0 4:17.271271213054053 5:0.7868210097219984 
1.0 0:502.0 1:875.0 2:63.0 3:21.0 4:16.727079649109324 5:0.38264942033855587 
1.0 0:193.0 1:1198.0 2:62.0 3:84.0 4:21.908644564948677 5:1.4841802957960237 
1.0 0:407.0 1:1172.0 2:75.0 3:62.0 4:19.305977621403134 5:1.7561639548359973 
1.0 0:389.0 1:1358.0 2:69.0 3:94.0 4:23.996743181309682 5:0.5641432264344507 
1.0 0:150.0 1:1361.0 2:82.0 3:71.0 4:23.855131782340248 5:0.944923810401686 
1.0 0:372.0 1:1340.0 2:50.0 3:96.0 4:25.819699611047454 5:0.3810487119645573 
1.0 0:1004.0 1:544.0 2:55.0 3:31.0 4:17.435146758186907 5:0.34716068814036727 
1.0 0:871.0 1:889.0 2:59.0 3:431.0 4:46.01899097932107 5:0.5769272193286195 
1.0 0:896.0 1:996.0 2:60.0 3:624.0 4:57.19189518711486 5:0.5284150320517028 
1.0 0:878.0 1:1037.0 2:53.0 3:580.0 4:55.6202550731245 5:0.5000535539339979 
1.0 0:915.0 1:627.0 2:62.0 3:711.0 4:60.917965966849884 5:5.555387374578302 
1.0 0:852.0 1:1142.0 2:62.0 3:710.0 4:60.623425404138125 5:0.8433410094128208 
1.0 0:913.0 1:1008.0 2:71.0 3:593.0 4:55.5542522815301 5:0.6925681826605723 
1.0 0:906.0 1:1274.0 2:68.0 3:1365.0 4:83.79662471299231 5:5.168948233437013 
1.0 0:941.0 1:1174.0 2:74.0 3:1019.0 4:71.96412319411162 5:0.8508894574045156 
1.0 0:551.0 1:1335.0 2:75.0 3:2369.0 4:108.15241053212878 5:0.4214987897551952 
1.0 0:690.0 1:1454.0 2:81.0 3:1611.0 4:89.78088952287634 5:0.6827746581139026 
1.0 0:722.0 1:1437.0 2:58.0 3:606.0 4:56.32595809979709 5:0.6532032069968525 
1.0 0:710.0 1:1323.0 2:72.0 3:414.0 4:46.869918800862635 5:0.31726202275525545 
1.0 0:872.0 1:1497.0 2:75.0 3:1790.0 4:95.00028636047479 5:0.6546081647840075 
1.0 0:846.0 1:1503.0 2:72.0 3:1273.0 4:78.97619804942848 5:0.5769375655488839 
1.0 0:714.0 1:177.0 2:80.0 3:53.0 4:20.330566207022592 5:0.8046011191463905 
1.0 0:432.0 1:1385.0 2:71.0 3:78.0 4:24.328880261045736 5:0.49320701314072946 
1.0 0:992.0 1:1695.0 2:53.0 3:58.0 4:19.308310689880514 5:0.416352054291946 
1.0 0:251.0 1:1058.0 2:77.0 3:283.0 4:36.742063121675976 5:0.6500685404047555 
1.0 0:1018.0 1:1708.0 2:53.0 3:59.0 4:22.080035356265704 5:0.47214943878801213 
1.0 0:856.0 1:479.0 2:79.0 3:8.0 4:14.040010443639039 5:0.8518633404778656 
1.0 0:276.0 1:989.0 2:84.0 3:51.0 4:19.27823799407291 5:2.024714461762981 
1.0 0:131.0 1:1414.0 2:76.0 3:52.0 4:19.258527504972538 5:1.8111576539071161 
1.0 0:329.0 1:1458.0 2:79.0 3:57.0 4:19.84031936481306 5:0.9580914492289815 
1.0 0:516.0 1:1433.0 2:62.0 3:28.0 4:17.48173358421519 5:0.4568847355978163 
1.0 0:154.0 1:1429.0 2:75.0 3:42.0 4:19.413630884714884 5:1.3841074016420902 
1.0 0:374.0 1:1423.0 2:71.0 3:52.0 4:19.570288174395134 5:0.7886816749061447 
1.0 0:590.0 1:1449.0 2:61.0 3:41.0 4:19.905862508252504 5:0.4878377602281453 
1.0 0:157.0 1:1464.0 2:55.0 3:45.0 4:21.37131983961303 5:1.1463055255383787 
1.0 0:1018.0 1:576.0 2:49.0 3:35.0 4:17.1228000297953 5:0.39401898621553066 
1.0 0:798.0 1:1063.0 2:77.0 3:499.0 4:51.969626827763754 5:1.3168696202047445 
1.0 0:830.0 1:1387.0 2:83.0 3:2335.0 4:107.8554984606632 5:1.176049986088809 
1.0 0:319.0 1:1891.0 2:65.0 3:51.0 4:19.95391283509512 5:0.864244592153814 
1.0 0:872.0 1:726.0 2:88.0 3:13.0 4:17.69143365825512 5:0.5585967731599752 
1.0 0:956.0 1:467.0 2:78.0 3:24.0 4:16.82374827822101 5:0.6830369333062958 
1.0 0:371.0 1:1018.0 2:77.0 3:44.0 4:19.314068835801145 5:1.4807247583604863 
1.0 0:360.0 1:1906.0 2:51.0 3:105.0 4:25.90391371984565 5:0.3952293354926214 
0.6435951470209583 0:813.0 1:1330.0 2:78.0 3:935.0 4:68.83661612698477 5:0.5806819575485894 
1.0 0:831.0 1:1494.0 2:69.0 3:983.0 4:70.7719914701611 5:1.0180409640072572 
0.47061402232963695 0:741.0 1:1553.0 2:52.0 3:331.0 4:42.794447216390985 5:0.5082721805559591 
1.0 0:732.0 1:1459.0 2:68.0 3:500.0 4:51.04702724861377 5:0.7964783320349447 
1.0 0:485.0 1:1857.0 2:60.0 3:11.0 4:16.999106929431704 5:0.8468725356885347 
1.0 0:538.0 1:1880.0 2:48.0 3:80.0 4:24.080095950339444 5:0.24047926877236986 
